<?xml version="1.0"?>
<opencv_storage>
<stage13>
  <maxWeakCount>7</maxWeakCount>
  <stageThreshold>-1.5949063301086426e+00</stageThreshold>
  <weakClassifiers>
    <_>
      <internalNodes>
        0 -1 4556223 -1.0764565085992217e-03</internalNodes>
      <leafValues>
        -1.7142857611179352e-01 -8.1762295961380005e-01</leafValues></_>
    <_>
      <internalNodes>
        0 -1 207579 1.5872281044721603e-02</internalNodes>
      <leafValues>
        -4.3217962980270386e-01 3.9068412780761719e-01</leafValues></_>
    <_>
      <internalNodes>
        0 -1 3277844 -1.6489714384078979e-02</internalNodes>
      <leafValues>
        -9.8114162683486938e-01 1.2264136970043182e-01</leafValues></_>
    <_>
      <internalNodes>
        0 -1 1349741 2.7959636645391583e-04</internalNodes>
      <leafValues>
        -3.5370385646820068e-01 3.7171202898025513e-01</leafValues></_>
    <_>
      <internalNodes>
        0 -1 2598332 -3.5728051443584263e-04</internalNodes>
      <leafValues>
        -8.4364628791809082e-01 1.7135050892829895e-01</leafValues></_>
    <_>
      <internalNodes>
        0 -1 3267889 1.8320534378290176e-02</internalNodes>
      <leafValues>
        -3.1977602839469910e-01 4.2883306741714478e-01</leafValues></_>
    <_>
      <internalNodes>
        0 -1 61531 2.0496514625847340e-03</internalNodes>
      <leafValues>
        -3.5304164886474609e-01 4.0318673849105835e-01</leafValues></_></weakClassifiers></stage13>
</opencv_storage>
