<?xml version="1.0"?>
<opencv_storage>
<stage12>
  <maxWeakCount>7</maxWeakCount>
  <stageThreshold>-1.2484835386276245e+00</stageThreshold>
  <weakClassifiers>
    <_>
      <internalNodes>
        0 -1 4562614 -1.4769234694540501e-02</internalNodes>
      <leafValues>
        2.6315790414810181e-01 -7.9036825895309448e-01</leafValues></_>
    <_>
      <internalNodes>
        0 -1 2417150 1.6859326511621475e-02</internalNodes>
      <leafValues>
        -4.4533383846282959e-01 5.1611983776092529e-01</leafValues></_>
    <_>
      <internalNodes>
        0 -1 2867013 8.0628914292901754e-04</internalNodes>
      <leafValues>
        -3.0862110853195190e-01 5.0899255275726318e-01</leafValues></_>
    <_>
      <internalNodes>
        0 -1 416561 2.4960618466138840e-03</internalNodes>
      <leafValues>
        -4.2771643400192261e-01 3.7499248981475830e-01</leafValues></_>
    <_>
      <internalNodes>
        0 -1 4014931 3.3104832982644439e-04</internalNodes>
      <leafValues>
        -3.0560854077339172e-01 4.9742665886878967e-01</leafValues></_>
    <_>
      <internalNodes>
        0 -1 2501116 -2.5952185969799757e-03</internalNodes>
      <leafValues>
        7.8384327888488770e-01 -1.9127127528190613e-01</leafValues></_>
    <_>
      <internalNodes>
        0 -1 1853703 -3.4539825282990932e-03</internalNodes>
      <leafValues>
        4.2525374889373779e-01 -3.8530814647674561e-01</leafValues></_></weakClassifiers></stage12>
</opencv_storage>
