<?xml version="1.0"?>
<opencv_storage>
<stage4>
  <maxWeakCount>6</maxWeakCount>
  <stageThreshold>-1.8951323032379150e+00</stageThreshold>
  <weakClassifiers>
    <_>
      <internalNodes>
        0 -1 4561499 -1.1468317359685898e-02</internalNodes>
      <leafValues>
        3.1963471323251724e-02 -8.7419164180755615e-01</leafValues></_>
    <_>
      <internalNodes>
        0 -1 2071654 7.9066894948482513e-02</internalNodes>
      <leafValues>
        -6.8319410085678101e-01 2.6539501547813416e-01</leafValues></_>
    <_>
      <internalNodes>
        0 -1 191100 2.1780179813504219e-03</internalNodes>
      <leafValues>
        -8.5676527023315430e-01 2.2905652225017548e-01</leafValues></_>
    <_>
      <internalNodes>
        0 -1 4345839 1.0911539196968079e-02</internalNodes>
      <leafValues>
        -4.4934424757957458e-01 5.8151096105575562e-01</leafValues></_>
    <_>
      <internalNodes>
        0 -1 1384022 2.0268928259611130e-02</internalNodes>
      <leafValues>
        -3.1033521890640259e-01 6.9962269067764282e-01</leafValues></_>
    <_>
      <internalNodes>
        0 -1 4071989 4.0265293791890144e-03</internalNodes>
      <leafValues>
        2.4784305691719055e-01 -8.9265155792236328e-01</leafValues></_></weakClassifiers></stage4>
</opencv_storage>
