<?xml version="1.0"?>
<opencv_storage>
<stage6>
  <maxWeakCount>6</maxWeakCount>
  <stageThreshold>-1.8728156089782715e+00</stageThreshold>
  <weakClassifiers>
    <_>
      <internalNodes>
        0 -1 4414552 1.1255695484578609e-02</internalNodes>
      <leafValues>
        -8.3378893136978149e-01 4.9450549483299255e-01</leafValues></_>
    <_>
      <internalNodes>
        0 -1 144543 1.5228180214762688e-02</internalNodes>
      <leafValues>
        -7.7004903554916382e-01 2.2375021874904633e-01</leafValues></_>
    <_>
      <internalNodes>
        0 -1 3595454 -8.4547844016924500e-04</internalNodes>
      <leafValues>
        4.8961332440376282e-01 -4.2474555969238281e-01</leafValues></_>
    <_>
      <internalNodes>
        0 -1 3596800 1.3921872014179826e-03</internalNodes>
      <leafValues>
        -2.7715545892715454e-01 6.9544893503189087e-01</leafValues></_>
    <_>
      <internalNodes>
        0 -1 211274 1.3383632525801659e-02</internalNodes>
      <leafValues>
        -9.2798405885696411e-01 2.3553165793418884e-01</leafValues></_>
    <_>
      <internalNodes>
        0 -1 2533608 -6.1161378398537636e-03</internalNodes>
      <leafValues>
        -9.8620152473449707e-01 1.9739174842834473e-01</leafValues></_></weakClassifiers></stage6>
</opencv_storage>
