<?xml version="1.0"?>
<opencv_storage>
<stage5>
  <maxWeakCount>7</maxWeakCount>
  <stageThreshold>-1.6613881587982178e+00</stageThreshold>
  <weakClassifiers>
    <_>
      <internalNodes>
        0 -1 840491 1.1638183146715164e-02</internalNodes>
      <leafValues>
        -8.4118288755416870e-01 5.9574466943740845e-01</leafValues></_>
    <_>
      <internalNodes>
        0 -1 4182794 1.4062112197279930e-02</internalNodes>
      <leafValues>
        -6.2496161460876465e-01 3.9423036575317383e-01</leafValues></_>
    <_>
      <internalNodes>
        0 -1 4542435 -3.3915457315742970e-03</internalNodes>
      <leafValues>
        4.3841981887817383e-01 -4.9690487980842590e-01</leafValues></_>
    <_>
      <internalNodes>
        0 -1 4140644 1.5046285698190331e-03</internalNodes>
      <leafValues>
        -3.3077824115753174e-01 6.2982702255249023e-01</leafValues></_>
    <_>
      <internalNodes>
        0 -1 90249 -4.8103138804435730e-02</internalNodes>
      <leafValues>
        4.7783476114273071e-01 -5.1649093627929688e-01</leafValues></_>
    <_>
      <internalNodes>
        0 -1 4198642 7.8688684152439237e-04</internalNodes>
      <leafValues>
        -3.6634489893913269e-01 6.3860476016998291e-01</leafValues></_>
    <_>
      <internalNodes>
        0 -1 3168338 1.8774013966321945e-02</internalNodes>
      <leafValues>
        -3.8065457344055176e-01 6.1402207612991333e-01</leafValues></_></weakClassifiers></stage5>
</opencv_storage>
