<?xml version="1.0"?>
<opencv_storage>
<stage8>
  <maxWeakCount>5</maxWeakCount>
  <stageThreshold>-1.5739098787307739e+00</stageThreshold>
  <weakClassifiers>
    <_>
      <internalNodes>
        0 -1 232679 -2049 -138936321 -102113793 -524289 -2490369
        -3283219 -67507201 -1</internalNodes>
      <leafValues>
        -8.7113648653030396e-01 4.0639269351959229e-01</leafValues></_>
    <_>
      <internalNodes>
        0 -1 220491 -1867490051 -51029761 -716702721 -35656233
        -1226244609 -1141117966 -1150551553 -1348855297</internalNodes>
      <leafValues>
        -7.8146916627883911e-01 2.8191053867340088e-01</leafValues></_>
    <_>
      <internalNodes>
        0 -1 104639 -68187990 -540154881 -1064885592 802009645
        -1656832004 -643590793 -167984721 -26181</internalNodes>
      <leafValues>
        -7.7497810125350952e-01 3.8732013106346130e-01</leafValues></_>
    <_>
      <internalNodes>
        0 -1 69225 -1651502731 -10723843 1598675967 532026717 -9470467
        -13915975 -1080558081 -1079368232</internalNodes>
      <leafValues>
        -6.9380539655685425e-01 5.0365817546844482e-01</leafValues></_>
    <_>
      <internalNodes>
        0 -1 176815 -23070210 -100878628 -74649360 -35851802 -69449232
        534534652 2012299260 -1025</internalNodes>
      <leafValues>
        -6.7819869518280029e-01 5.0698119401931763e-01</leafValues></_></weakClassifiers></stage8>
</opencv_storage>
