<?xml version="1.0"?>
<opencv_storage>
<stage4>
  <maxWeakCount>4</maxWeakCount>
  <stageThreshold>-2.0853250026702881e+00</stageThreshold>
  <weakClassifiers>
    <_>
      <internalNodes>
        0 -1 250397 -2098177 -15212297 -2022976161 -506986789 -19930345
        -1073036401 -522456639 -134219777</internalNodes>
      <leafValues>
        -8.8832730054855347e-01 4.2962962388992310e-01</leafValues></_>
    <_>
      <internalNodes>
        0 -1 22611 -285216785 1320349150 -1551569009 -283580451
        -309335041 2006039775 -70254593 -302260481</internalNodes>
      <leafValues>
        -8.4077864885330200e-01 3.7304875254631042e-01</leafValues></_>
    <_>
      <internalNodes>
        0 -1 224409 -149424638 2113917431 -1410126584 -1073742418
        1943008246 2102452665 -145489940 -138938413</internalNodes>
      <leafValues>
        -7.7462327480316162e-01 4.6765565872192383e-01</leafValues></_>
    <_>
      <internalNodes>
        0 -1 188453 -157672264 -10495540 1708985643 -35707907
        -1644312322 -273445990 416224989 -1650483779</internalNodes>
      <leafValues>
        -8.2387453317642212e-01 4.7749674320220947e-01</leafValues></_></weakClassifiers></stage4>
</opencv_storage>
