<?xml version="1.0"?>
<opencv_storage>
<stage4>
  <maxWeakCount>4</maxWeakCount>
  <stageThreshold>-2.0061516761779785e+00</stageThreshold>
  <weakClassifiers>
    <_>
      <internalNodes>
        0 -1 250553 -153 -76822017 -610016462 -35652649 -70523085
        1460531531 -235944089 -1</internalNodes>
      <leafValues>
        -9.1908395290374756e-01 7.4747473001480103e-02</leafValues></_>
    <_>
      <internalNodes>
        0 -1 250119 -75497629 -419430433 -833434932 -269486146
        -1545617840 -569603343 -1226354188 -143139997</internalNodes>
      <leafValues>
        -8.2135194540023804e-01 2.5288438796997070e-01</leafValues></_>
    <_>
      <internalNodes>
        0 -1 6292 -1372918018 -40376686 -1479094315 -4206755 -1433538817
        -4510785 -1677722113 -268464643</internalNodes>
      <leafValues>
        -7.5556784868240356e-01 4.7391179203987122e-01</leafValues></_>
    <_>
      <internalNodes>
        0 -1 168119 -681581910 1398223687 1984662052 930295455
        1983640302 625037510 -698900817 2000158703</internalNodes>
      <leafValues>
        -8.0848324298858643e-01 4.8985213041305542e-01</leafValues></_></weakClassifiers></stage4>
</opencv_storage>
