<?xml version="1.0"?>
<opencv_storage>
<stage10>
  <maxWeakCount>5</maxWeakCount>
  <stageThreshold>-1.7879633903503418e+00</stageThreshold>
  <weakClassifiers>
    <_>
      <internalNodes>
        0 -1 233004 -145230873 -537397761 -672276513 -680002609 -6557697
        -266269 -2101297 -1574913</internalNodes>
      <leafValues>
        -8.8131439685821533e-01 5.4755043238401413e-02</leafValues></_>
    <_>
      <internalNodes>
        0 -1 250569 -169 -338167841 -397414414 -104858001 -404031675
        -1199504837 -119015951 -210239657</internalNodes>
      <leafValues>
        -7.4620217084884644e-01 2.7020263671875000e-01</leafValues></_>
    <_>
      <internalNodes>
        0 -1 185543 -539423570 -570458727 760481933 -6586659 -7365122
        -5251139 524225791 -536879875</internalNodes>
      <leafValues>
        -7.2322493791580200e-01 4.2493313550949097e-01</leafValues></_>
    <_>
      <internalNodes>
        0 -1 212020 1001821340 -1347446276 -1075864419 1056946109
        -587618 -1342457154 -1342382353 -841093639</internalNodes>
      <leafValues>
        -7.5015389919281006e-01 4.0007570385932922e-01</leafValues></_>
    <_>
      <internalNodes>
        0 -1 207014 -75507026 -80908372 457413258 -1141021227 1037099758
        861148974 1399780347 2069879615</internalNodes>
      <leafValues>
        -7.7336704730987549e-01 4.0281179547309875e-01</leafValues></_></weakClassifiers></stage10>
</opencv_storage>
