<?xml version="1.0"?>
<opencv_storage>
<stage10>
  <maxWeakCount>5</maxWeakCount>
  <stageThreshold>-1.8683005571365356e+00</stageThreshold>
  <weakClassifiers>
    <_>
      <internalNodes>
        0 -1 231618 -2623497 -2097153 -33556993 -513 -4194305 -19013
        -273678337 -1</internalNodes>
      <leafValues>
        -9.1665506362915039e-01 8.0000003799796104e-03</leafValues></_>
    <_>
      <internalNodes>
        0 -1 5951 -827396097 -1051747 -6465601 -33554435 -1342702081
        -6291489 -1 -268472835</internalNodes>
      <leafValues>
        -7.6645070314407349e-01 1.9420099258422852e-01</leafValues></_>
    <_>
      <internalNodes>
        0 -1 626 -1422997298 -815683 2013183967 -674299058 -1078006033
        -4335173 -1075838978 -274820146</internalNodes>
      <leafValues>
        -8.4114092588424683e-01 2.4922612309455872e-01</leafValues></_>
    <_>
      <internalNodes>
        0 -1 240369 -1107296420 -1392558851 -69206051 -923087363
        -1415643144 -1074015234 -262180 -576725636</internalNodes>
      <leafValues>
        -7.7405548095703125e-01 3.4420499205589294e-01</leafValues></_>
    <_>
      <internalNodes>
        0 -1 62884 -543045 1462186385 -348389637 2139061631 -648431105
        185932065 1989073247 1596124015</internalNodes>
      <leafValues>
        -6.2101721763610840e-01 5.0410479307174683e-01</leafValues></_></weakClassifiers></stage10>
</opencv_storage>
