<?xml version="1.0"?>
<opencv_storage>
<stage5>
  <maxWeakCount>4</maxWeakCount>
  <stageThreshold>-2.2001869678497314e+00</stageThreshold>
  <weakClassifiers>
    <_>
      <internalNodes>
        0 -1 250589 -1 -236980513 -345257625 -2102577 -540019723
        -6566257 -537923595 -1</internalNodes>
      <leafValues>
        -9.3585920333862305e-01 5.2910052239894867e-02</leafValues></_>
    <_>
      <internalNodes>
        0 -1 4916 -8429697 -592393 -16843041 -134283297 -5 -5185
        -83951617 -4456449</internalNodes>
      <leafValues>
        -7.9058247804641724e-01 3.8788196444511414e-01</leafValues></_>
    <_>
      <internalNodes>
        0 -1 64770 -1313860367 -1100290 -1088946177 -2287235 -1297811459
        -71304967 -1210384385 -1086513700</internalNodes>
      <leafValues>
        -7.1730846166610718e-01 4.7319555282592773e-01</leafValues></_>
    <_>
      <internalNodes>
        0 -1 248936 -8395774 -167904289 -1083179860 -1073742849
        -338690187 2142091985 394116028 -264413</internalNodes>
      <leafValues>
        -7.4520611763000488e-01 5.1977276802062988e-01</leafValues></_></weakClassifiers></stage5>
</opencv_storage>
