<?xml version="1.0"?>
<opencv_storage>
<stage2>
  <maxWeakCount>4</maxWeakCount>
  <stageThreshold>-1.9509536027908325e+00</stageThreshold>
  <weakClassifiers>
    <_>
      <internalNodes>
        0 -1 250556 -69208073 -781983737 -1073504254 -788283386
        -2130190015 -1073676287 -264113343 -201328665</internalNodes>
      <leafValues>
        -9.1081964969635010e-01 5.0857144594192505e-01</leafValues></_>
    <_>
      <internalNodes>
        0 -1 1578 -463470593 611481883 -654202401 -405089477 1202443675
        1086358670 -939265329 -889721345</internalNodes>
      <leafValues>
        -9.0834116935729980e-01 4.4909706711769104e-01</leafValues></_>
    <_>
      <internalNodes>
        0 -1 226129 -143130650 -38543242 -1023343478 -302004229
        -743709794 2073088463 -2146770711 -143137809</internalNodes>
      <leafValues>
        -8.2363617420196533e-01 5.7288390398025513e-01</leafValues></_>
    <_>
      <internalNodes>
        0 -1 76224 -204409153 -2154177 -519769601 -46148161 -401819204
        -74674039 -82251521 -547693587</internalNodes>
      <leafValues>
        -8.0982899665832520e-01 6.9184339046478271e-01</leafValues></_></weakClassifiers></stage2>
</opencv_storage>
